digraph Tree {
node [shape=box] ;
0 [label="X[38] <= 0.0\ngini = 0.75\nsamples = 1472\nvalue = [368.0, 368.0, 368.0, 368.0]"] ;
1 [label="X[8] <= 0.0476\ngini = 0.5594\nsamples = 1092\nvalue = [21.0286, 38.069, 138.0, 286.6358]"] ;
0 -> 1 [labeldistance=2.5, labelangle=45, headlabel="True"] ;
2 [label="X[1] <= 0.0236\ngini = 0.643\nsamples = 544\nvalue = [21.0286, 38.069, 138.0, 140.9249]"] ;
1 -> 2 ;
3 [label="gini = 0.0\nsamples = 229\nvalue = [0.0, 0.0, 0.0, 60.8902]"] ;
2 -> 3 ;
4 [label="X[19] <= 0.0264\ngini = 0.644\nsamples = 315\nvalue = [21.0286, 38.069, 138.0, 80.0347]"] ;
2 -> 4 ;
5 [label="X[12] <= 0.0156\ngini = 0.6146\nsamples = 198\nvalue = [21.0286, 38.069, 138.0, 48.9249]"] ;
4 -> 5 ;
6 [label="X[20] <= 0.0519\ngini = 0.7358\nsamples = 94\nvalue = [21.0286, 38.069, 30.6667, 23.1329]"] ;
5 -> 6 ;
7 [label="X[10] <= 0.0291\ngini = 0.6343\nsamples = 81\nvalue = [21.0286, 38.069, 0.0, 20.2081]"] ;
6 -> 7 ;
8 [label="X[10] <= 0.0286\ngini = 0.4623\nsamples = 47\nvalue = [21.0286, 0.0, 0.0, 11.9653]"] ;
7 -> 8 ;
9 [label="gini = 0.0\nsamples = 43\nvalue = [0.0, 0.0, 0.0, 11.4335]"] ;
8 -> 9 ;
10 [label="X[3] <= 0.0212\ngini = 0.0481\nsamples = 4\nvalue = [21.0286, 0.0, 0.0, 0.5318]"] ;
8 -> 10 ;
11 [label="gini = 0.0\nsamples = 2\nvalue = [21.0286, 0.0, 0.0, 0.0]"] ;
10 -> 11 ;
12 [label="gini = 0.0\nsamples = 2\nvalue = [0.0, 0.0, 0.0, 0.5318]"] ;
10 -> 12 ;
13 [label="X[12] <= 0.0145\ngini = 0.2926\nsamples = 34\nvalue = [0.0, 38.069, 0.0, 8.2428]"] ;
7 -> 13 ;
14 [label="gini = -0.0\nsamples = 27\nvalue = [0.0, 0.0, 0.0, 7.1792]"] ;
13 -> 14 ;
15 [label="X[20] <= 0.0358\ngini = 0.0529\nsamples = 7\nvalue = [0.0, 38.069, 0.0, 1.0636]"] ;
13 -> 15 ;
16 [label="gini = -0.0\nsamples = 4\nvalue = [0.0, 0.0, 0.0, 1.0636]"] ;
15 -> 16 ;
17 [label="gini = 0.0\nsamples = 3\nvalue = [0.0, 38.069, 0.0, 0.0]"] ;
15 -> 17 ;
18 [label="X[16] <= 0.044\ngini = 0.159\nsamples = 13\nvalue = [0.0, 0.0, 30.6667, 2.9249]"] ;
6 -> 18 ;
19 [label="X[21] <= 0.0186\ngini = 0.017\nsamples = 3\nvalue = [0.0, 0.0, 30.6667, 0.2659]"] ;
18 -> 19 ;
20 [label="gini = 0.0\nsamples = 1\nvalue = [0.0, 0.0, 0.0, 0.2659]"] ;
19 -> 20 ;
21 [label="gini = 0.0\nsamples = 2\nvalue = [0.0, 0.0, 30.6667, 0.0]"] ;
19 -> 21 ;
22 [label="gini = -0.0\nsamples = 10\nvalue = [0.0, 0.0, 0.0, 2.659]"] ;
18 -> 22 ;
23 [label="X[23] <= 0.0067\ngini = 0.3124\nsamples = 104\nvalue = [0.0, 0.0, 107.3333, 25.7919]"] ;
5 -> 23 ;
24 [label="gini = 0.0\nsamples = 52\nvalue = [0.0, 0.0, 0.0, 13.8266]"] ;
23 -> 24 ;
25 [label="X[28] <= 0.0496\ngini = 0.1805\nsamples = 52\nvalue = [0.0, 0.0, 107.3333, 11.9653]"] ;
23 -> 25 ;
26 [label="X[32] <= 0.0066\ngini = 0.1059\nsamples = 31\nvalue = [0.0, 0.0, 107.3333, 6.3815]"] ;
25 -> 26 ;
27 [label="X[11] <= 0.0211\ngini = 0.0648\nsamples = 21\nvalue = [0.0, 0.0, 107.3333, 3.7225]"] ;
26 -> 27 ;
28 [label="gini = 0.0\nsamples = 8\nvalue = [0.0, 0.0, 0.0, 2.1272]"] ;
27 -> 28 ;
29 [label="X[17] <= 0.03\ngini = 0.0289\nsamples = 13\nvalue = [0.0, 0.0, 107.3333, 1.5954]"] ;
27 -> 29 ;
30 [label="gini = 0.0\nsamples = 4\nvalue = [0.0, 0.0, 0.0, 1.0636]"] ;
29 -> 30 ;
31 [label="X[20] <= 0.0422\ngini = 0.0098\nsamples = 9\nvalue = [0.0, 0.0, 107.3333, 0.5318]"] ;
29 -> 31 ;
32 [label="X[22] <= 0.0599\ngini = 0.0049\nsamples = 8\nvalue = [0.0, 0.0, 107.3333, 0.2659]"] ;
31 -> 32 ;
33 [label="gini = 0.0\nsamples = 1\nvalue = [0.0, 0.0, 0.0, 0.2659]"] ;
32 -> 33 ;
34 [label="gini = 0.0\nsamples = 7\nvalue = [0.0, 0.0, 107.3333, 0.0]"] ;
32 -> 34 ;
35 [label="gini = -0.0\nsamples = 1\nvalue = [0.0, 0.0, 0.0, 0.2659]"] ;
31 -> 35 ;
36 [label="gini = -0.0\nsamples = 10\nvalue = [0.0, 0.0, 0.0, 2.659]"] ;
26 -> 36 ;
37 [label="gini = -0.0\nsamples = 21\nvalue = [0.0, 0.0, 0.0, 5.5838]"] ;
25 -> 37 ;
38 [label="gini = 0.0\nsamples = 117\nvalue = [0.0, 0.0, 0.0, 31.1098]"] ;
4 -> 38 ;
39 [label="gini = 0.0\nsamples = 548\nvalue = [0.0, 0.0, 0.0, 145.711]"] ;
1 -> 39 ;
40 [label="X[1] <= 0.0332\ngini = 0.7043\nsamples = 380\nvalue = [346.9714, 329.931, 230.0, 81.3642]"] ;
0 -> 40 [labeldistance=2.5, labelangle=-45, headlabel="False"] ;
41 [label="X[20] <= 0.0365\ngini = 0.6575\nsamples = 342\nvalue = [346.9714, 329.931, 92.0, 73.6532]"] ;
40 -> 41 ;
42 [label="X[23] <= 0.0095\ngini = 0.6027\nsamples = 63\nvalue = [21.0286, 114.2069, 61.3333, 12.763]"] ;
41 -> 42 ;
43 [label="X[23] <= 0.0068\ngini = 0.4614\nsamples = 48\nvalue = [21.0286, 114.2069, 15.3333, 9.5723]"] ;
42 -> 43 ;
44 [label="X[4] <= 0.0107\ngini = 0.5902\nsamples = 22\nvalue = [21.0286, 0.0, 15.3333, 5.052]"] ;
43 -> 44 ;
45 [label="X[20] <= 0.0364\ngini = 0.34\nsamples = 17\nvalue = [0.0, 0.0, 15.3333, 4.2543]"] ;
44 -> 45 ;
46 [label="gini = 0.0\nsamples = 15\nvalue = [0.0, 0.0, 0.0, 3.9884]"] ;
45 -> 46 ;
47 [label="X[35] <= 0.0245\ngini = 0.0335\nsamples = 2\nvalue = [0.0, 0.0, 15.3333, 0.2659]"] ;
45 -> 47 ;
48 [label="gini = 0.0\nsamples = 1\nvalue = [0.0, 0.0, 15.3333, 0.0]"] ;
47 -> 48 ;
49 [label="gini = -0.0\nsamples = 1\nvalue = [0.0, 0.0, 0.0, 0.2659]"] ;
47 -> 49 ;
50 [label="X[31] <= 0.0061\ngini = 0.0704\nsamples = 5\nvalue = [21.0286, 0.0, 0.0, 0.7977]"] ;
44 -> 50 ;
51 [label="gini = 0.0\nsamples = 3\nvalue = [0.0, 0.0, 0.0, 0.7977]"] ;
50 -> 51 ;
52 [label="gini = 0.0\nsamples = 2\nvalue = [21.0286, 0.0, 0.0, 0.0]"] ;
50 -> 52 ;
53 [label="X[32] <= 0.0058\ngini = 0.0732\nsamples = 26\nvalue = [0.0, 114.2069, 0.0, 4.5202]"] ;
43 -> 53 ;
54 [label="X[36] <= 0.0106\ngini = 0.0402\nsamples = 18\nvalue = [0.0, 114.2069, 0.0, 2.3931]"] ;
53 -> 54 ;
55 [label="gini = 0.0\nsamples = 5\nvalue = [0.0, 0.0, 0.0, 1.3295]"] ;
54 -> 55 ;
56 [label="X[17] <= 0.03\ngini = 0.0183\nsamples = 13\nvalue = [0.0, 114.2069, 0.0, 1.0636]"] ;
54 -> 56 ;
57 [label="gini = 0.0\nsamples = 3\nvalue = [0.0, 0.0, 0.0, 0.7977]"] ;
56 -> 57 ;
58 [label="X[13] <= 0.023\ngini = 0.0046\nsamples = 10\nvalue = [0.0, 114.2069, 0.0, 0.2659]"] ;
56 -> 58 ;
59 [label="gini = 0.0\nsamples = 9\nvalue = [0.0, 114.2069, 0.0, 0.0]"] ;
58 -> 59 ;
60 [label="gini = -0.0\nsamples = 1\nvalue = [0.0, 0.0, 0.0, 0.2659]"] ;
58 -> 60 ;
61 [label="gini = -0.0\nsamples = 8\nvalue = [0.0, 0.0, 0.0, 2.1272]"] ;
53 -> 61 ;
62 [label="X[25] <= 0.0005\ngini = 0.1213\nsamples = 15\nvalue = [0.0, 0.0, 46.0, 3.1908]"] ;
42 -> 62 ;
63 [label="X[9] <= 0.0401\ngini = 0.0114\nsamples = 4\nvalue = [0.0, 0.0, 46.0, 0.2659]"] ;
62 -> 63 ;
64 [label="gini = 0.0\nsamples = 3\nvalue = [0, 0, 46, 0]"] ;
63 -> 64 ;
65 [label="gini = -0.0\nsamples = 1\nvalue = [0.0, 0.0, 0.0, 0.2659]"] ;
63 -> 65 ;
66 [label="gini = -0.0\nsamples = 11\nvalue = [0.0, 0.0, 0.0, 2.9249]"] ;
62 -> 66 ;
67 [label="X[5] <= 0.0281\ngini = 0.6074\nsamples = 279\nvalue = [325.9429, 215.7241, 30.6667, 60.8902]"] ;
41 -> 67 ;
68 [label="X[10] <= 0.0324\ngini = 0.5501\nsamples = 130\nvalue = [63.0857, 139.5862, 0.0, 30.0462]"] ;
67 -> 68 ;
69 [label="X[35] <= 0.0216\ngini = 0.4255\nsamples = 87\nvalue = [31.5429, 139.5862, 0.0, 19.4104]"] ;
68 -> 69 ;
70 [label="X[35] <= 0.0204\ngini = 0.3724\nsamples = 28\nvalue = [21.0286, 0.0, 0.0, 6.9133]"] ;
69 -> 70 ;
71 [label="gini = 0.0\nsamples = 24\nvalue = [0.0, 0.0, 0.0, 6.3815]"] ;
70 -> 71 ;
72 [label="X[34] <= 0.0203\ngini = 0.0481\nsamples = 4\nvalue = [21.0286, 0.0, 0.0, 0.5318]"] ;
70 -> 72 ;
73 [label="gini = 0.0\nsamples = 2\nvalue = [21.0286, 0.0, 0.0, 0.0]"] ;
72 -> 73 ;
74 [label="gini = 0.0\nsamples = 2\nvalue = [0.0, 0.0, 0.0, 0.5318]"] ;
72 -> 74 ;
75 [label="X[11] <= 0.0228\ngini = 0.2529\nsamples = 59\nvalue = [10.5143, 139.5862, 0.0, 12.4971]"] ;
69 -> 75 ;
76 [label="X[29] <= 0.0051\ngini = 0.6241\nsamples = 20\nvalue = [10.5143, 12.6897, 0.0, 4.7861]"] ;
75 -> 76 ;
77 [label="gini = 0.0\nsamples = 1\nvalue = [0.0, 12.6897, 0.0, 0.0]"] ;
76 -> 77 ;
78 [label="X[27] <= 0.0429\ngini = 0.4299\nsamples = 19\nvalue = [10.5143, 0.0, 0.0, 4.7861]"] ;
76 -> 78 ;
79 [label="gini = 0.0\nsamples = 1\nvalue = [10.5143, 0.0, 0.0, 0.0]"] ;
78 -> 79 ;
80 [label="gini = -0.0\nsamples = 18\nvalue = [0.0, 0.0, 0.0, 4.7861]"] ;
78 -> 80 ;
81 [label="X[6] <= 0.0202\ngini = 0.108\nsamples = 39\nvalue = [0.0, 126.8966, 0.0, 7.711]"] ;
75 -> 81 ;
82 [label="X[36] <= 0.0146\ngini = 0.07\nsamples = 28\nvalue = [0.0, 126.8966, 0.0, 4.7861]"] ;
81 -> 82 ;
83 [label="X[29] <= 0.0067\ngini = 0.0363\nsamples = 19\nvalue = [0.0, 126.8966, 0.0, 2.3931]"] ;
82 -> 83 ;
84 [label="gini = 0.0\nsamples = 4\nvalue = [0.0, 0.0, 0.0, 1.0636]"] ;
83 -> 84 ;
85 [label="X[11] <= 0.0267\ngini = 0.0205\nsamples = 15\nvalue = [0.0, 126.8966, 0.0, 1.3295]"] ;
83 -> 85 ;
86 [label="X[17] <= 0.0449\ngini = 0.0083\nsamples = 12\nvalue = [0.0, 126.8966, 0.0, 0.5318]"] ;
85 -> 86 ;
87 [label="X[7] <= 0.0076\ngini = 0.0042\nsamples = 11\nvalue = [0.0, 126.8966, 0.0, 0.2659]"] ;
86 -> 87 ;
88 [label="gini = 0.0\nsamples = 10\nvalue = [0.0, 126.8966, 0.0, 0.0]"] ;
87 -> 88 ;
89 [label="gini = -0.0\nsamples = 1\nvalue = [0.0, 0.0, 0.0, 0.2659]"] ;
87 -> 89 ;
90 [label="gini = -0.0\nsamples = 1\nvalue = [0.0, 0.0, 0.0, 0.2659]"] ;
86 -> 90 ;
91 [label="gini = -0.0\nsamples = 3\nvalue = [0.0, 0.0, 0.0, 0.7977]"] ;
85 -> 91 ;
92 [label="gini = -0.0\nsamples = 9\nvalue = [0.0, 0.0, 0.0, 2.3931]"] ;
82 -> 92 ;
93 [label="gini = -0.0\nsamples = 11\nvalue = [0.0, 0.0, 0.0, 2.9249]"] ;
81 -> 93 ;
94 [label="X[14] <= 0.0106\ngini = 0.3772\nsamples = 43\nvalue = [31.5429, 0.0, 0.0, 10.6358]"] ;
68 -> 94 ;
95 [label="gini = -0.0\nsamples = 34\nvalue = [0.0, 0.0, 0.0, 9.0405]"] ;
94 -> 95 ;
96 [label="X[17] <= 0.0328\ngini = 0.0917\nsamples = 9\nvalue = [31.5429, 0.0, 0.0, 1.5954]"] ;
94 -> 96 ;
97 [label="X[31] <= 0.0043\ngini = 0.0166\nsamples = 4\nvalue = [31.5429, 0.0, 0.0, 0.2659]"] ;
96 -> 97 ;
98 [label="gini = 0.0\nsamples = 1\nvalue = [0.0, 0.0, 0.0, 0.2659]"] ;
97 -> 98 ;
99 [label="gini = -0.0\nsamples = 3\nvalue = [31.5429, 0.0, 0.0, 0.0]"] ;
97 -> 99 ;
100 [label="gini = -0.0\nsamples = 5\nvalue = [0.0, 0.0, 0.0, 1.3295]"] ;
96 -> 100 ;
101 [label="X[12] <= 0.0216\ngini = 0.5213\nsamples = 149\nvalue = [262.8571, 76.1379, 30.6667, 30.8439]"] ;
67 -> 101 ;
102 [label="X[3] <= 0.0212\ngini = 0.4414\nsamples = 141\nvalue = [262.8571, 76.1379, 0.0, 29.2486]"] ;
101 -> 102 ;
103 [label="X[29] <= 0.0087\ngini = 0.309\nsamples = 92\nvalue = [252.3429, 38.069, 0.0, 17.2832]"] ;
102 -> 103 ;
104 [label="X[1] <= 0.0252\ngini = 0.1165\nsamples = 76\nvalue = [220.8, 0.0, 0.0, 14.6243]"] ;
103 -> 104 ;
105 [label="gini = 0.0\nsamples = 21\nvalue = [0.0, 0.0, 0.0, 5.5838]"] ;
104 -> 105 ;
106 [label="X[26] <= 0.0131\ngini = 0.0756\nsamples = 55\nvalue = [220.8, 0.0, 0.0, 9.0405]"] ;
104 -> 106 ;
107 [label="gini = 0.0\nsamples = 11\nvalue = [0.0, 0.0, 0.0, 2.9249]"] ;
106 -> 107 ;
108 [label="X[18] <= 0.0048\ngini = 0.0524\nsamples = 44\nvalue = [220.8, 0.0, 0.0, 6.1156]"] ;
106 -> 108 ;
109 [label="X[13] <= 0.0221\ngini = 0.0371\nsamples = 37\nvalue = [220.8, 0.0, 0.0, 4.2543]"] ;
108 -> 109 ;
110 [label="X[24] <= 0.0171\ngini = 0.0258\nsamples = 32\nvalue = [220.8, 0.0, 0.0, 2.9249]"] ;
109 -> 110 ;
111 [label="X[30] <= 0.061\ngini = 0.0189\nsamples = 29\nvalue = [220.8, 0.0, 0.0, 2.1272]"] ;
110 -> 111 ;
112 [label="gini = 0.0\nsamples = 3\nvalue = [0.0, 0.0, 0.0, 0.7977]"] ;
111 -> 112 ;
113 [label="X[1] <= 0.0325\ngini = 0.0119\nsamples = 26\nvalue = [220.8, 0.0, 0.0, 1.3295]"] ;
111 -> 113 ;
114 [label="X[2] <= 0.0885\ngini = 0.0095\nsamples = 25\nvalue = [220.8, 0.0, 0.0, 1.0636]"] ;
113 -> 114 ;
115 [label="X[4] <= 0.0157\ngini = 0.0072\nsamples = 24\nvalue = [220.8, 0.0, 0.0, 0.7977]"] ;
114 -> 115 ;
116 [label="X[28] <= 0.0519\ngini = 0.0048\nsamples = 23\nvalue = [220.8, 0.0, 0.0, 0.5318]"] ;
115 -> 116 ;
117 [label="X[1] <= 0.0319\ngini = 0.0024\nsamples = 22\nvalue = [220.8, 0.0, 0.0, 0.2659]"] ;
116 -> 117 ;
118 [label="gini = 0.0\nsamples = 20\nvalue = [210.2857, 0.0, 0.0, 0.0]"] ;
117 -> 118 ;
119 [label="X[12] <= 0.0166\ngini = 0.0481\nsamples = 2\nvalue = [10.5143, 0.0, 0.0, 0.2659]"] ;
117 -> 119 ;
120 [label="gini = 0.0\nsamples = 1\nvalue = [10.5143, 0.0, 0.0, 0.0]"] ;
119 -> 120 ;
121 [label="gini = -0.0\nsamples = 1\nvalue = [0.0, 0.0, 0.0, 0.2659]"] ;
119 -> 121 ;
122 [label="gini = -0.0\nsamples = 1\nvalue = [0.0, 0.0, 0.0, 0.2659]"] ;
116 -> 122 ;
123 [label="gini = -0.0\nsamples = 1\nvalue = [0.0, 0.0, 0.0, 0.2659]"] ;
115 -> 123 ;
124 [label="gini = -0.0\nsamples = 1\nvalue = [0.0, 0.0, 0.0, 0.2659]"] ;
114 -> 124 ;
125 [label="gini = -0.0\nsamples = 1\nvalue = [0.0, 0.0, 0.0, 0.2659]"] ;
113 -> 125 ;
126 [label="gini = -0.0\nsamples = 3\nvalue = [0.0, 0.0, 0.0, 0.7977]"] ;
110 -> 126 ;
127 [label="gini = -0.0\nsamples = 5\nvalue = [0.0, 0.0, 0.0, 1.3295]"] ;
109 -> 127 ;
128 [label="gini = -0.0\nsamples = 7\nvalue = [0.0, 0.0, 0.0, 1.8613]"] ;
108 -> 128 ;
129 [label="X[4] <= 0.0097\ngini = 0.5307\nsamples = 16\nvalue = [31.5429, 38.069, 0.0, 2.659]"] ;
103 -> 129 ;
130 [label="X[30] <= 0.0677\ngini = 0.1002\nsamples = 11\nvalue = [0.0, 38.069, 0.0, 2.1272]"] ;
129 -> 130 ;
131 [label="gini = -0.0\nsamples = 6\nvalue = [0.0, 0.0, 0.0, 1.5954]"] ;
130 -> 131 ;
132 [label="X[27] <= 0.0418\ngini = 0.0272\nsamples = 5\nvalue = [0.0, 38.069, 0.0, 0.5318]"] ;
130 -> 132 ;
133 [label="gini = 0.0\nsamples = 2\nvalue = [0.0, 0.0, 0.0, 0.5318]"] ;
132 -> 133 ;
134 [label="gini = 0.0\nsamples = 3\nvalue = [0.0, 38.069, 0.0, 0.0]"] ;
132 -> 134 ;
135 [label="X[9] <= 0.0363\ngini = 0.0326\nsamples = 5\nvalue = [31.5429, 0.0, 0.0, 0.5318]"] ;
129 -> 135 ;
136 [label="gini = 0.0\nsamples = 3\nvalue = [31.5429, 0.0, 0.0, 0.0]"] ;
135 -> 136 ;
137 [label="gini = 0.0\nsamples = 2\nvalue = [0.0, 0.0, 0.0, 0.5318]"] ;
135 -> 137 ;
138 [label="X[17] <= 0.0316\ngini = 0.5355\nsamples = 49\nvalue = [10.5143, 38.069, 0.0, 11.9653]"] ;
102 -> 138 ;
139 [label="X[3] <= 0.0216\ngini = 0.1623\nsamples = 17\nvalue = [0.0, 38.069, 0.0, 3.7225]"] ;
138 -> 139 ;
140 [label="gini = 0.0\nsamples = 3\nvalue = [0.0, 38.069, 0.0, 0.0]"] ;
139 -> 140 ;
141 [label="gini = -0.0\nsamples = 14\nvalue = [0.0, 0.0, 0.0, 3.7225]"] ;
139 -> 141 ;
142 [label="X[5] <= 0.0282\ngini = 0.4927\nsamples = 32\nvalue = [10.5143, 0.0, 0.0, 8.2428]"] ;
138 -> 142 ;
143 [label="gini = 0.0\nsamples = 1\nvalue = [10.5143, 0.0, 0.0, 0.0]"] ;
142 -> 143 ;
144 [label="gini = 0.0\nsamples = 31\nvalue = [0.0, 0.0, 0.0, 8.2428]"] ;
142 -> 144 ;
145 [label="X[9] <= 0.0305\ngini = 0.094\nsamples = 8\nvalue = [0.0, 0.0, 30.6667, 1.5954]"] ;
101 -> 145 ;
146 [label="gini = 0.0\nsamples = 6\nvalue = [0.0, 0.0, 0.0, 1.5954]"] ;
145 -> 146 ;
147 [label="gini = 0.0\nsamples = 2\nvalue = [0.0, 0.0, 30.6667, 0.0]"] ;
145 -> 147 ;
148 [label="X[38] <= 0.0006\ngini = 0.1002\nsamples = 38\nvalue = [0.0, 0.0, 138.0, 7.711]"] ;
40 -> 148 ;
149 [label="X[32] <= 0.0045\ngini = 0.0263\nsamples = 16\nvalue = [0.0, 0.0, 138.0, 1.8613]"] ;
148 -> 149 ;
150 [label="gini = 0.0\nsamples = 5\nvalue = [0.0, 0.0, 0.0, 1.3295]"] ;
149 -> 150 ;
151 [label="X[25] <= 0.0014\ngini = 0.0076\nsamples = 11\nvalue = [0.0, 0.0, 138.0, 0.5318]"] ;
149 -> 151 ;
152 [label="gini = 0.0\nsamples = 9\nvalue = [0, 0, 138, 0]"] ;
151 -> 152 ;
153 [label="gini = -0.0\nsamples = 2\nvalue = [0.0, 0.0, 0.0, 0.5318]"] ;
151 -> 153 ;
154 [label="gini = -0.0\nsamples = 22\nvalue = [0.0, 0.0, 0.0, 5.8497]"] ;
148 -> 154 ;
}